<?xml version="1.0"?>
<opencv_storage>
<my_nb type_id="opencv-ml-bayesian">
  <var_count>10</var_count>
  <var_all>10</var_all>
  <cls_labels type_id="opencv-matrix">
    <rows>1</rows>
    <cols>6</cols>
    <dt>i</dt>
    <data>
      1 2 3 4 5 6</data></cls_labels>
  <count>
    <_ type_id="opencv-matrix">
      <rows>1</rows>
      <cols>10</cols>
      <dt>i</dt>
      <data>
        89 89 89 89 89 89 89 89 89 89</data></_>
    <_ type_id="opencv-matrix">
      <rows>1</rows>
      <cols>10</cols>
      <dt>i</dt>
      <data>
        89 89 89 89 89 89 89 89 89 89</data></_>
    <_ type_id="opencv-matrix">
      <rows>1</rows>
      <cols>10</cols>
      <dt>i</dt>
      <data>
        90 90 90 90 90 90 90 90 90 90</data></_>
    <_ type_id="opencv-matrix">
      <rows>1</rows>
      <cols>10</cols>
      <dt>i</dt>
      <data>
        90 90 90 90 90 90 90 90 90 90</data></_>
    <_ type_id="opencv-matrix">
      <rows>1</rows>
      <cols>10</cols>
      <dt>i</dt>
      <data>
        90 90 90 90 90 90 90 90 90 90</data></_>
    <_ type_id="opencv-matrix">
      <rows>1</rows>
      <cols>10</cols>
      <dt>i</dt>
      <data>
        90 90 90 90 90 90 90 90 90 90</data></_></count>
  <sum>
    <_ type_id="opencv-matrix">
      <rows>1</rows>
      <cols>10</cols>
      <dt>d</dt>
      <data>
        1.1769043297041208e+01 6.8790449188090861e+00
        8.9040462858974934e+00 1.9327287647873163e+01
        3.6281505161896348e+00 1.0132723964750767e+01
        1.6529177845455706e+01 1.7613371708430350e+00
        6.9005965963006020e+00 3.1685918360017240e+00</data></_>
    <_ type_id="opencv-matrix">
      <rows>1</rows>
      <cols>10</cols>
      <dt>d</dt>
      <data>
        1.5672337414231151e+01 4.1680482872761786e+00
        1.0782664848491549e+01 1.9237479069270194e+01
        3.1640090555883944e+00 1.0486140431836247e+01
        1.5151386508718133e+01 1.2399980109184980e+00
        6.5654001496732235e+00 2.5325365778990090e+00</data></_>
    <_ type_id="opencv-matrix">
      <rows>1</rows>
      <cols>10</cols>
      <dt>d</dt>
      <data>
        1.1465545693878084e+01 7.6808017077855766e+00
        1.0113500278443098e+01 1.6685269765555859e+01
        6.0356244975700974e+00 6.4705195538699627e+00
        1.4145707218907773e+01 3.8879107707180083e+00
        8.0145883457735181e+00 5.5005326103419065e+00</data></_>
    <_ type_id="opencv-matrix">
      <rows>1</rows>
      <cols>10</cols>
      <dt>d</dt>
      <data>
        2.0922687351703644e+00 1.7451725561171770e+01
        3.2607015664689243e+00 5.6949364780448377e+00
        7.6626399084925652e+00 7.2722983337007463e+00
        9.7036634851247072e+00 1.4604418419301510e+01
        1.2881668288260698e+01 9.3756790962070227e+00</data></_>
    <_ type_id="opencv-matrix">
      <rows>1</rows>
      <cols>10</cols>
      <dt>d</dt>
      <data>
        3.1681870417669415e+00 1.6437808884307742e+01
        6.7891282103955746e+00 6.4215106065385044e+00
        7.4706290904432535e+00 9.0334348771721125e+00
        9.2919380133971572e+00 8.5909601245075464e+00
        1.3747484624385834e+01 9.0489186476916075e+00</data></_>
    <_ type_id="opencv-matrix">
      <rows>1</rows>
      <cols>10</cols>
      <dt>d</dt>
      <data>
        1.6785187181085348e+00 2.3107969561591744e+01
        2.2165322080254555e+00 7.8241291348822415e+00
        5.6193859465420246e+00 3.4533068658784032e+00
        9.4191579129546881e+00 1.9331478527747095e+01
        7.6401033848524094e+00 9.7094177901744843e+00</data></_></sum>
  <productsum>
    <_ type_id="opencv-matrix">
      <rows>10</rows>
      <cols>10</cols>
      <dt>d</dt>
      <data>
        2.2545599803806615e+00 7.4208638978810670e-01
        1.3019206349607790e+00 2.4345914108503042e+00
        4.2888292565144470e-01 1.1831065715039510e+00
        2.1580261789862898e+00 1.7466070267352321e-01
        7.8991223356834694e-01 3.0129628675400161e-01
        7.4208638978810670e-01 9.4435480141755335e-01
        6.5196117322865565e-01 1.5120683724487765e+00
        3.1992960757374200e-01 6.8415792555969612e-01
        1.0002832753541311e+00 1.7855366755344756e-01
        5.3708333287004040e-01 3.0856640191522650e-01
        1.3019206349607790e+00 6.5196117322865565e-01
        1.0378318016984389e+00 1.7061957545169364e+00
        3.3539327219128678e-01 9.1931431620841075e-01
        1.8199298347746526e+00 1.6926229098703449e-01
        6.8013800319144657e-01 2.8209920819178164e-01
        2.4345914108503042e+00 1.5120683724487765e+00
        1.7061957545169364e+00 5.9974375236986237e+00
        8.4988973128722578e-01 2.6486398169444509e+00
        2.0437042674060164e+00 3.1350490313954682e-01
        1.1787047778169997e+00 6.4255115798127094e-01
        4.2888292565144470e-01 3.1992960757374200e-01
        3.3539327219128678e-01 8.4988973128722578e-01
        2.1804234043984266e-01 4.2823990535695178e-01
        5.0984176857296659e-01 9.8450699492239557e-02
        2.8049277472182088e-01 1.5898750042698775e-01
        1.1831065715039510e+00 6.8415792555969612e-01
        9.1931431620841075e-01 2.6486398169444509e+00
        4.2823990535695178e-01 1.5743795975769330e+00
        1.4111128589766668e+00 1.6526125321511004e-01
        7.7476734694562077e-01 3.4374437179231576e-01
        2.1580261789862898e+00 1.0002832753541311e+00
        1.8199298347746526e+00 2.0437042674060164e+00
        5.0984176857296659e-01 1.4111128589766668e+00
        5.2806877963496035e+00 3.0713704642171907e-01
        1.4703779472253728e+00 5.2807683862203914e-01
        1.7466070267352321e-01 1.7855366755344756e-01
        1.6926229098703449e-01 3.1350490313954682e-01
        9.8450699492239557e-02 1.6526125321511004e-01
        3.0713704642171907e-01 8.5416120230195847e-02
        1.6587394808501182e-01 1.0321653531244716e-01
        7.8991223356834694e-01 5.3708333287004040e-01
        6.8013800319144657e-01 1.1787047778169997e+00
        2.8049277472182088e-01 7.7476734694562077e-01
        1.4703779472253728e+00 1.6587394808501182e-01
        7.4304192924667811e-01 2.8020429409061792e-01
        3.0129628675400161e-01 3.0856640191522650e-01
        2.8209920819178164e-01 6.4255115798127094e-01
        1.5898750042698775e-01 3.4374437179231576e-01
        5.2807683862203914e-01 1.0321653531244716e-01
        2.8020429409061792e-01 2.1984923701555978e-01</data></_>
    <_ type_id="opencv-matrix">
      <rows>10</rows>
      <cols>10</cols>
      <dt>d</dt>
      <data>
        3.3519448336393260e+00 5.1195825614208612e-01
        2.0120285514930858e+00 3.4844922564614476e+00
        5.3652974832050360e-01 1.7746718720553989e+00
        2.4817664506440353e+00 1.4008640799142702e-01
        9.8855392516945462e-01 3.9030519302527467e-01
        5.1195825614208612e-01 6.2889694331967083e-01
        4.2838326590733944e-01 8.1716108358766082e-01
        1.5779289850091802e-01 4.4380413276683373e-01
        5.7692679105380240e-01 1.0101262503819806e-01
        3.7719693321937292e-01 1.2491539418128983e-01
        2.0120285514930858e+00 4.2838326590733944e-01
        1.4654404948414144e+00 2.2374824732314864e+00
        3.5768996524241276e-01 1.2358036979521352e+00
        1.8690808843774220e+00 1.2217455596665475e-01
        7.7605559680501734e-01 2.7852538845440550e-01
        3.4844922564614476e+00 8.1716108358766082e-01
        2.2374824732314864e+00 5.7412492801714032e+00
        7.4695539247950071e-01 2.5696996241548584e+00
        1.8132211411237902e+00 1.9370217828337430e-01
        1.1167585196212606e+00 5.1675723092934800e-01
        5.3652974832050360e-01 1.5779289850091802e-01
        3.5768996524241276e-01 7.4695539247950071e-01
        1.6164584928614090e-01 3.7101753302226503e-01
        4.4738490174395107e-01 5.1501700664587799e-02
        2.1891654838185010e-01 1.1457453514638317e-01
        1.7746718720553989e+00 4.4380413276683373e-01
        1.2358036979521352e+00 2.5696996241548584e+00
        3.7101753302226503e-01 1.5578535693655882e+00
        1.3828571102994431e+00 1.2734766149380095e-01
        7.3287639379026781e-01 2.9020887575227783e-01
        2.4817664506440353e+00 5.7692679105380240e-01
        1.8690808843774220e+00 1.8132211411237902e+00
        4.4738490174395107e-01 1.3828571102994431e+00
        4.6132700873005019e+00 2.3761302400483800e-01
        1.3016109594222987e+00 4.2765517772398148e-01
        1.4008640799142702e-01 1.0101262503819806e-01
        1.2217455596665475e-01 1.9370217828337430e-01
        5.1501700664587799e-02 1.2734766149380095e-01
        2.3761302400483800e-01 6.5159633384632418e-02
        1.4386662709919976e-01 5.7533604393571046e-02
        9.8855392516945462e-01 3.7719693321937292e-01
        7.7605559680501734e-01 1.1167585196212606e+00
        2.1891654838185010e-01 7.3287639379026781e-01
        1.3016109594222987e+00 1.4386662709919976e-01
        7.0068287698461829e-01 2.0888177491406365e-01
        3.9030519302527467e-01 1.2491539418128983e-01
        2.7852538845440550e-01 5.1675723092934800e-01
        1.1457453514638317e-01 2.9020887575227783e-01
        4.2765517772398148e-01 5.7533604393571046e-02
        2.0888177491406365e-01 1.2317941544675799e-01</data></_>
    <_ type_id="opencv-matrix">
      <rows>10</rows>
      <cols>10</cols>
      <dt>d</dt>
      <data>
        1.8640280935644715e+00 8.7636069214583667e-01
        1.3654634186399535e+00 2.1352264602545565e+00
        7.2072353294842040e-01 7.6102181224970977e-01
        1.7492238361853691e+00 3.9731544045429190e-01
        9.2983678616695464e-01 6.6634570578414376e-01
        8.7636069214583667e-01 8.9562785251171695e-01
        7.8478919010528625e-01 1.5137567428326717e+00
        5.5875725658382747e-01 5.7728675642438487e-01
        9.3000021948129563e-01 3.9135509967301801e-01
        6.8185377000145853e-01 4.7101416103760213e-01
        1.3654634186399535e+00 7.8478919010528625e-01
        1.3041458671564281e+00 1.7287056472957034e+00
        6.5305542266086480e-01 7.2992264554399966e-01
        1.6554763559819832e+00 3.9803534166765209e-01
        8.9276044980334612e-01 6.0114600441190313e-01
        2.1352264602545565e+00 1.5137567428326717e+00
        1.7287056472957034e+00 4.0926832699317579e+00
        1.2627197476971872e+00 1.2004734488827338e+00
        1.6233021761531163e+00 7.3688431864693649e-01
        1.3170744560976897e+00 1.0744435919164839e+00
        7.2072353294842040e-01 5.5875725658382747e-01
        6.5305542266086480e-01 1.2627197476971872e+00
        5.1089639570423484e-01 4.3920776047019633e-01
        7.0524789470388449e-01 2.8585466507800861e-01
        4.9796415040830944e-01 4.0119770634605267e-01
        7.6102181224970977e-01 5.7728675642438487e-01
        7.2992264554399966e-01 1.2004734488827338e+00
        4.3920776047019633e-01 6.0699239860101206e-01
        8.7485152496291563e-01 2.7713951820100635e-01
        6.0891631016381476e-01 3.9470741126910114e-01
        1.7492238361853691e+00 9.3000021948129563e-01
        1.6554763559819832e+00 1.6233021761531163e+00
        7.0524789470388449e-01 8.7485152496291563e-01
        4.0269771320951948e+00 5.1442296095625484e-01
        1.3359452457389638e+00 7.3025989499193111e-01
        3.9731544045429190e-01 3.9135509967301801e-01
        3.9803534166765209e-01 7.3688431864693649e-01
        2.8585466507800861e-01 2.7713951820100635e-01
        5.1442296095625484e-01 2.8973797553145336e-01
        3.3955943472725714e-01 2.5760603293255341e-01
        9.2983678616695464e-01 6.8185377000145853e-01
        8.9276044980334612e-01 1.3170744560976897e+00
        4.9796415040830944e-01 6.0891631016381476e-01
        1.3359452457389638e+00 3.3955943472725714e-01
        9.2162044183018477e-01 4.8905733410259822e-01
        6.6634570578414376e-01 4.7101416103760213e-01
        6.0114600441190313e-01 1.0744435919164839e+00
        4.0119770634605267e-01 3.9470741126910114e-01
        7.3025989499193111e-01 2.5760603293255341e-01
        4.8905733410259822e-01 4.1475479319891456e-01</data></_>
    <_ type_id="opencv-matrix">
      <rows>10</rows>
      <cols>10</cols>
      <dt>d</dt>
      <data>
        1.4581722076726628e-01 3.0426797392321336e-01
        1.3119138927408011e-01 2.0396003794972761e-01
        1.9023176619269658e-01 1.4309128712337735e-01
        2.5023659745310550e-01 2.9053306913955967e-01
        2.3133845269688913e-01 2.0160092145425010e-01
        3.0426797392321336e-01 5.6665702644276861e+00
        4.6112379566688871e-01 1.1336736917486163e+00
        1.2383225334154853e+00 9.7418469706179112e-01
        9.4843304366790493e-01 2.9482348800907712e+00
        2.1674303525727563e+00 1.6094843618536971e+00
        1.3119138927408011e-01 4.6112379566688871e-01
        2.1927844731593071e-01 2.4292073319259819e-01
        3.0017166349401092e-01 2.5587236739442620e-01
        4.1426348383397121e-01 4.6630995590121360e-01
        4.3520001865589297e-01 3.3436970612182676e-01
        2.0396003794972761e-01 1.1336736917486163e+00
        2.4292073319259819e-01 6.8279339196140842e-01
        5.4121625973365861e-01 3.7647884815635424e-01
        5.1049168081891749e-01 7.9516901125179129e-01
        6.7798824995575024e-01 5.3024455589769082e-01
        1.9023176619269658e-01 1.2383225334154853e+00
        3.0017166349401092e-01 5.4121625973365861e-01
        8.0935362599100857e-01 6.3974523820479590e-01
        7.9801475722795590e-01 1.2031976293348927e+00
        1.1174358917775580e+00 8.2495052509416400e-01
        1.4309128712337735e-01 9.7418469706179112e-01
        2.5587236739442620e-01 3.7647884815635424e-01
        6.3974523820479590e-01 9.0146520528414986e-01
        9.4352705377159551e-01 1.0481844320723948e+00
        1.1930890419178057e+00 7.9666012750566140e-01
        2.5023659745310550e-01 9.4843304366790493e-01
        4.1426348383397121e-01 5.1049168081891749e-01
        7.9801475722795590e-01 9.4352705377159551e-01
        2.1828188952519962e+00 1.2007124504912476e+00
        1.4367360258728561e+00 1.0184294749291056e+00
        2.9053306913955967e-01 2.9482348800907712e+00
        4.6630995590121360e-01 7.9516901125179129e-01
        1.2031976293348927e+00 1.0481844320723948e+00
        1.2007124504912476e+00 3.0544585187952586e+00
        2.0408921760994918e+00 1.5567262974512879e+00
        2.3133845269688913e-01 2.1674303525727563e+00
        4.3520001865589297e-01 6.7798824995575024e-01
        1.1174358917775580e+00 1.1930890419178057e+00
        1.4367360258728561e+00 2.0408921760994918e+00
        2.1828762299624955e+00 1.3986818128823384e+00
        2.0160092145425010e-01 1.6094843618536971e+00
        3.3436970612182676e-01 5.3024455589769082e-01
        8.2495052509416400e-01 7.9666012750566140e-01
        1.0184294749291056e+00 1.5567262974512879e+00
        1.3986818128823384e+00 1.1045313034770310e+00</data></_>
    <_ type_id="opencv-matrix">
      <rows>10</rows>
      <cols>10</cols>
      <dt>d</dt>
      <data>
        2.9200118431380778e-01 3.0780111715172498e-01
        3.1469943754058183e-01 2.6876423727349164e-01
        2.6766040641837602e-01 3.4576496221312020e-01
        3.8608871805727690e-01 2.2097420158559758e-01
        4.6123939020731863e-01 3.0319337108635414e-01
        3.0780111715172498e-01 5.5338186835051140e+00
        9.9248112136050526e-01 1.2088451190903575e+00
        1.1621245406573628e+00 1.0205528053136539e+00
        7.6483181558534619e-01 1.6847901649538997e+00
        2.1666313326692719e+00 1.5959322393528752e+00
        3.1469943754058183e-01 9.9248112136050526e-01
        7.4040000432196917e-01 5.0187284119148778e-01
        6.0551439954249386e-01 7.4471101202118573e-01
        7.0791855572711826e-01 4.8124634350816281e-01
        1.0546128423670020e+00 6.4567166325083192e-01
        2.6876423727349164e-01 1.2088451190903575e+00
        5.0187284119148778e-01 7.0752493652175041e-01
        5.6513124285082028e-01 5.9346062422455370e-01
        5.5107966612620818e-01 5.3470591910106013e-01
        8.8132522305039163e-01 6.0880080245321078e-01
        2.6766040641837602e-01 1.1621245406573628e+00
        6.0551439954249386e-01 5.6513124285082028e-01
        7.3998633960504878e-01 7.7540819458663768e-01
        7.6098256134150555e-01 7.0788163156241513e-01
        1.1425228250910431e+00 7.4341697986685762e-01
        3.4576496221312020e-01 1.0205528053136539e+00
        7.4471101202118573e-01 5.9346062422455370e-01
        7.7540819458663768e-01 1.3245067319621391e+00
        1.1227702003060887e+00 7.0140077715099813e-01
        1.5096561355718270e+00 8.9520342928290686e-01
        3.8608871805727690e-01 7.6483181558534619e-01
        7.0791855572711826e-01 5.5107966612620818e-01
        7.6098256134150555e-01 1.1227702003060887e+00
        1.9003727562765134e+00 7.3415715577998297e-01
        1.4695357190948941e+00 8.9420083397131311e-01
        2.2097420158559758e-01 1.6847901649538997e+00
        4.8124634350816281e-01 5.3470591910106013e-01
        7.0788163156241513e-01 7.0140077715099813e-01
        7.3415715577998297e-01 1.3319012010432496e+00
        1.2492842527014494e+00 9.4461851781760287e-01
        4.6123939020731863e-01 2.1666313326692719e+00
        1.0546128423670020e+00 8.8132522305039163e-01
        1.1425228250910431e+00 1.5096561355718270e+00
        1.4695357190948941e+00 1.2492842527014494e+00
        2.4471777535611414e+00 1.3654991767707416e+00
        3.0319337108635414e-01 1.5959322393528752e+00
        6.4567166325083192e-01 6.0880080245321078e-01
        7.4341697986685762e-01 8.9520342928290686e-01
        8.9420083397131311e-01 9.4461851781760287e-01
        1.3654991767707416e+00 1.0523816364460541e+00</data></_>
    <_ type_id="opencv-matrix">
      <rows>10</rows>
      <cols>10</cols>
      <dt>d</dt>
      <data>
        1.3597180035362535e-01 3.7627494063138961e-01
        8.5816717372604698e-02 2.3267719487936617e-01
        1.0166919616495011e-01 6.0672003121706210e-02
        1.3590181839094584e-01 2.8149524134624399e-01
        1.2708849270259812e-01 1.4095131613981043e-01
        3.7627494063138961e-01 9.1295618375577874e+00
        4.4269709107253130e-01 2.2422592234307985e+00
        1.0496141980726588e+00 5.3783612101091771e-01
        1.2517588160900264e+00 4.5949293597393135e+00
        1.5156296728624750e+00 1.9674083615883080e+00
        8.5816717372604698e-02 4.4269709107253130e-01
        1.4649738271925486e-01 2.0778200242193129e-01
        1.3804742861769764e-01 8.4013623571504090e-02
        2.7681734123357304e-01 3.8942553014405834e-01
        2.1025549632450724e-01 2.3517958353095780e-01
        2.3267719487936617e-01 2.2422592234307985e+00
        2.0778200242193129e-01 1.3294177232586839e+00
        5.2780796425103427e-01 2.1416233947754540e-01
        4.5030461213891687e-01 1.4073056269578812e+00
        5.2987948732927082e-01 6.8253295992347940e-01
        1.0166919616495011e-01 1.0496141980726588e+00
        1.3804742861769764e-01 5.2780796425103427e-01
        5.1479090215742973e-01 2.5259981123333458e-01
        5.6326133279117518e-01 1.2639088110557202e+00
        4.9396372722899423e-01 7.1372256302754766e-01
        6.0672003121706210e-02 5.3783612101091771e-01
        8.4013623571504090e-02 2.1416233947754540e-01
        2.5259981123333458e-01 2.7102493671580341e-01
        5.1160340435328244e-01 7.4091902226810291e-01
        3.6373544609565645e-01 4.1674016390891178e-01
        1.3590181839094584e-01 1.2517588160900264e+00
        2.7681734123357304e-01 4.5030461213891687e-01
        5.6326133279117518e-01 5.1160340435328244e-01
        2.4022537372887438e+00 1.7740856478438056e+00
        1.0359429917703538e+00 1.0172281955684346e+00
        2.8149524134624399e-01 4.5949293597393135e+00
        3.8942553014405834e-01 1.4073056269578812e+00
        1.2639088110557202e+00 7.4091902226810291e-01
        1.7740856478438056e+00 4.9665464017798016e+00
        1.6323203201528518e+00 2.2805426006314677e+00
        1.2708849270259812e-01 1.5156296728624750e+00
        2.1025549632450724e-01 5.2987948732927082e-01
        4.9396372722899423e-01 3.6373544609565645e-01
        1.0359429917703538e+00 1.6323203201528518e+00
        8.6598224832711290e-01 8.6530550380216054e-01
        1.4095131613981043e-01 1.9674083615883080e+00
        2.3517958353095780e-01 6.8253295992347940e-01
        7.1372256302754766e-01 4.1674016390891178e-01
        1.0172281955684346e+00 2.2805426006314677e+00
        8.6530550380216054e-01 1.3898065268143831e+00</data></_></productsum>
  <avg>
    <_ type_id="opencv-matrix">
      <rows>1</rows>
      <cols>10</cols>
      <dt>d</dt>
      <data>
        1.3223644153978886e-01 7.7292639537180741e-02
        1.0004546388648869e-01 2.1716053536936139e-01
        4.0765736136962188e-02 1.1385083106461535e-01
        1.8572109938714276e-01 1.9790305290371180e-02
        7.7534793216860701e-02 3.5602155460693528e-02</data></_>
    <_ type_id="opencv-matrix">
      <rows>1</rows>
      <cols>10</cols>
      <dt>d</dt>
      <data>
        1.7609367881158597e-01 4.6832003227822230e-02
        1.2115353762350056e-01 2.1615145021651902e-01
        3.5550663545937014e-02 1.1782180260490166e-01
        1.7024029785076553e-01 1.3932561920432563e-02
        7.3768541007564303e-02 2.8455467167404595e-02</data></_>
    <_ type_id="opencv-matrix">
      <rows>1</rows>
      <cols>10</cols>
      <dt>d</dt>
      <data>
        1.2739495215420094e-01 8.5342241197617519e-02
        1.1237222531603443e-01 1.8539188628395398e-01
        6.7062494417445523e-02 7.1894661709666255e-02
        1.5717452465453083e-01 4.3199008563533425e-02
        8.9050981619705760e-02 6.1117029003798964e-02</data></_>
    <_ type_id="opencv-matrix">
      <rows>1</rows>
      <cols>10</cols>
      <dt>d</dt>
      <data>
        2.3247430390781827e-02 1.9390806179079745e-01
        3.6230017405210271e-02 6.3277071978275978e-02
        8.5140443427695167e-02 8.0803314818897187e-02
        1.0781848316805230e-01 1.6227131577001677e-01
        1.4312964764734110e-01 1.0417421218007802e-01</data></_>
    <_ type_id="opencv-matrix">
      <rows>1</rows>
      <cols>10</cols>
      <dt>d</dt>
      <data>
        3.5202078241854909e-02 1.8264232093675270e-01
        7.5434757893284160e-02 7.1350117850427830e-02
        8.3006989893813929e-02 1.0037149863524569e-01
        1.0324375570441285e-01 9.5455112494528288e-02
        1.5274982915984259e-01 1.0054354052990674e-01</data></_>
    <_ type_id="opencv-matrix">
      <rows>1</rows>
      <cols>10</cols>
      <dt>d</dt>
      <data>
        1.8650207978983719e-02 2.5675521735101936e-01
        2.4628135644727284e-02 8.6934768165358237e-02
        6.2437621628244719e-02 3.8370076287537816e-02
        1.0465731014394097e-01 2.1479420586385661e-01
        8.4890037609471211e-02 1.0788241989082760e-01</data></_></avg>
  <inv_eigen_values>
    <_ type_id="opencv-matrix">
      <rows>1</rows>
      <cols>10</cols>
      <dt>d</dt>
      <data>
        2.3319285663115931e+01 1.0118529399167606e+02
        1.2903379435343240e+02 2.2838879327526269e+02
        6.1372779682423879e+02 8.1580468820400563e+02
        9.4922029440412848e+02 1.7870154018766209e+03
        4.0496656186931000e+03 8388608.</data></_>
    <_ type_id="opencv-matrix">
      <rows>1</rows>
      <cols>10</cols>
      <dt>d</dt>
      <data>
        2.5662759913223496e+01 1.0373221563465329e+02
        1.8484988657559632e+02 2.8602270305178081e+02
        5.1772560027444752e+02 6.8099073704530508e+02
        1.0590855213023274e+03 3.3209839440726887e+03
        4.6822050589611754e+03 8388608.</data></_>
    <_ type_id="opencv-matrix">
      <rows>1</rows>
      <cols>10</cols>
      <dt>d</dt>
      <data>
        3.4433699072934239e+01 1.5897240027664927e+02
        2.1082713775266211e+02 4.2860500463292658e+02
        5.5136140367980306e+02 7.1217589702583996e+02
        1.0208754722720948e+03 1.1840497446888621e+03
        1.8804466248212932e+03 8388608.</data></_>
    <_ type_id="opencv-matrix">
      <rows>1</rows>
      <cols>10</cols>
      <dt>d</dt>
      <data>
        2.9521011070819124e+01 9.4246261353512139e+01
        1.5698098646268514e+02 1.7590604668710057e+02
        5.4370567878426152e+02 6.8052610062448696e+02
        7.9402539431386549e+02 1.0459452509006687e+03
        2.3104246683847955e+03 8388608.</data></_>
    <_ type_id="opencv-matrix">
      <rows>1</rows>
      <cols>10</cols>
      <dt>d</dt>
      <data>
        2.7474248442472593e+01 1.3846434583973118e+02
        1.4286680865759652e+02 2.0819247288164573e+02
        3.9586398464677592e+02 4.8330828006187886e+02
        6.5072737045155964e+02 7.3256992440438319e+02
        1.2675105716227429e+03 8388608.</data></_>
    <_ type_id="opencv-matrix">
      <rows>1</rows>
      <cols>10</cols>
      <dt>d</dt>
      <data>
        2.1941647482614297e+01 6.7986156096345482e+01
        9.6815199635349686e+01 2.9520583431698714e+02
        4.5637208430442797e+02 6.7565649514494089e+02
        8.5097912941728100e+02 1.1876730624294091e+03
        2.0760401387443221e+03 8388608.</data></_></inv_eigen_values>
  <cov_rotate_mats>
    <_ type_id="opencv-matrix">
      <rows>10</rows>
      <cols>10</cols>
      <dt>d</dt>
      <data>
        3.2000953260788945e-02 -6.0764919674075525e-02
        8.0378718669084345e-02 -6.4194105943835678e-01
        -4.5423263912072763e-02 -1.9049239398561321e-01
        7.2745632961775730e-01 8.8194187061851771e-03
        9.5314124305234491e-02 -5.3479257246673772e-03
        -8.7366388112742777e-01 2.9448994370659720e-01
        -1.7462514542253715e-01 -2.6556712000521645e-02
        7.0845586874145952e-02 1.5400076155318668e-01
        7.6132539481544442e-02 9.1219642679412280e-02
        2.1143302887962928e-01 1.7672422381987610e-01
        1.6447418854554938e-01 5.5415430092799300e-01
        9.2449046125392523e-02 -4.9469053640412292e-01
        1.0642371112885107e-01 -3.1562792428478970e-01
        -4.9991402054606970e-01 1.2788301708330416e-01
        1.2000803278784826e-01 1.4484020270201359e-01
        -5.1835568722789709e-02 4.2789087591033592e-01
        -1.8434675009675845e-02 4.3194493759082880e-01
        -4.3713577720353843e-02 -6.2226686524222530e-01
        3.0521472666808336e-01 -1.8503429928187713e-02
        -3.7908684760588118e-01 -3.1209501716130576e-02
        -1.5930955084789884e-02 -5.0120897149821220e-01
        -2.4618702401536716e-01 1.1081924558940001e-01
        2.5468919643386678e-01 -5.1649264699764885e-01
        -7.3199978878045704e-02 2.7752273620772949e-01
        2.8572398375039643e-01 4.2426439101144159e-01
        3.0031779259552116e-01 2.5773134374663703e-01
        -7.7030780906061536e-01 7.5651330852615634e-02
        -1.4889395336482658e-01 6.0219165511990996e-02
        1.1464661497857019e-01 -1.5173188513915681e-01
        4.0312675338537979e-01 -1.4075931766329919e-01
        1.1357013589361481e-01 3.5239675661543964e-02
        -4.2587933627973551e-01 -1.9061360582066336e-01
        2.7629209720145526e-01 2.8029604372187522e-01
        5.5388550041322988e-02 1.0752755929530430e-01
        -6.5831692016488130e-01 4.0649576103223767e-01
        5.0968837333722004e-02 1.8012268648110660e-02
        9.3601206098987685e-02 3.6028523399586364e-02
        -7.4305892453428990e-01 3.9334317021589384e-02
        -1.1050471435651923e-02 -1.4238175288503641e-01
        1.6144583101111731e-02 6.4240129020322823e-01
        2.8475580399510841e-03 -1.4267564458451565e-02
        -1.0021023575148609e-01 -1.6602391034852549e-02
        -4.0518007381686583e-01 5.1529600726197035e-02
        -1.5779148579219318e-02 8.6199103447043834e-01
        -1.0154477496916592e-01 -2.6278420605148278e-01
        3.1622776334318248e-01 3.1622774712298696e-01
        3.1622776459877239e-01 3.1622775285160792e-01
        3.1622771873362199e-01 3.1622778568251708e-01
        3.1622776358067756e-01 3.1622782059070137e-01
        3.1622775905616346e-01 3.1622778460813783e-01</data></_>
    <_ type_id="opencv-matrix">
      <rows>10</rows>
      <cols>10</cols>
      <dt>d</dt>
      <data>
        -7.2039170128900223e-02 -4.9959726398496806e-03
        2.4391536017900610e-02 -6.3755450440548511e-01
        -3.1941694367796494e-02 -1.5826694002932556e-01
        7.4111868059391717e-01 2.3763435984976610e-02
        1.0851386434863654e-01 7.0107482623377971e-03
        -7.3755655424343025e-01 5.3759142193570675e-01
        -2.0075414630466884e-01 -6.9971225511411592e-02
        4.1015041625207714e-02 1.0645582064617348e-01
        -1.3990331457229505e-01 1.2685257098465996e-01
        2.5920966563586278e-01 7.7060718617604121e-02
        -4.4265610795620347e-01 -4.4094700189329478e-01
        -1.6854491109244671e-01 5.3281968368823096e-01
        4.4367483275631575e-04 2.0679548118618693e-01
        4.8353635091431296e-01 -4.0387327458022544e-02
        -1.3807529224886275e-01 7.0154215033317842e-03
        -8.1743749064635107e-02 -4.4606406918799135e-01
        1.4883496342078587e-01 -3.7764474833927758e-01
        -5.0244091072392978e-02 7.0321835537747179e-01
        -2.3416118611289330e-01 2.5446090001317451e-02
        2.7507838616257019e-01 3.7279971085856657e-02
        -1.1637688694926432e-01 -4.4024600864548330e-01
        4.1976318702843816e-02 7.5336574604542295e-02
        1.3036682126200441e-01 -5.5304484782440821e-01
        -1.5804387839782610e-01 2.1424270154394814e-01
        5.8568171120551415e-01 2.2010742821438981e-01
        2.9761271138096679e-01 -5.0487177019838264e-02
        -8.7362403384468779e-01 -1.0050528040197612e-01
        2.0374492129806893e-01 1.2065013185095269e-01
        -4.5214023861738922e-03 1.4781680604031405e-01
        2.0119012218788864e-02 2.3919444377060031e-01
        2.1277541594158933e-01 1.2335244784986860e-01
        -2.0741746863698443e-01 2.1134106289899679e-01
        -5.1285179842029582e-01 7.5088009970069147e-02
        1.2945001703072054e-01 -1.1596564787052913e-01
        5.6623992636954512e-01 -4.8201200796536892e-01
        2.5642966407893346e-03 3.4926945805822021e-02
        -2.0291086016444491e-02 3.8469763487134637e-03
        5.7864797914771837e-01 1.6049751461340338e-02
        2.2769668339700431e-02 -7.6803286196428400e-01
        2.4430784513148379e-01 -1.1478967331956924e-01
        2.8237730171236465e-02 6.9006385313774385e-02
        1.1352145440397128e-02 4.0732718991770500e-02
        -4.8827745213483020e-01 -5.2386617758629055e-03
        1.6038184848003852e-02 -4.5824978054505611e-01
        5.0599829284122287e-02 7.3579887365452279e-01
        -3.1622774766690942e-01 -3.1622774814938415e-01
        -3.1622780207318268e-01 -3.1622776741812392e-01
        -3.1622777671748159e-01 -3.1622776950209119e-01
        -3.1622776831226079e-01 -3.1622772080216355e-01
        -3.1622780395945338e-01 -3.1622775556731975e-01</data></_>
    <_ type_id="opencv-matrix">
      <rows>10</rows>
      <cols>10</cols>
      <dt>d</dt>
      <data>
        -1.0300849925790122e-02 -1.2227451928371411e-01
        6.0721683378765955e-02 -5.4451655174439340e-01
        -1.1623354538904253e-01 -4.7679670658252113e-02
        8.1214953282712266e-01 -4.0723436090403478e-02
        6.6434154441847568e-02 -5.7576814832669548e-02
        -7.6287489572293010e-01 3.6265306722620844e-01
        -1.8907403879406526e-01 -2.2478542384105074e-01
        9.0569294736105310e-02 1.8331807341090775e-01
        -7.4304621028298296e-02 2.4792086703470470e-01
        2.9338727535263831e-01 7.3190353500478589e-02
        3.2394622234692383e-01 6.9144196573723754e-02
        3.3983769041425366e-01 -6.6910064219168808e-01
        -3.4639742122049594e-02 2.0211536476355196e-01
        -4.7246091335962176e-01 -2.8152377433738347e-02
        2.4593448166926521e-01 2.3375782562568840e-02
        2.5079662413282516e-01 6.6285718900383639e-01
        -1.9928040758631849e-01 -2.1327301761091391e-01
        8.7228591798751157e-02 -2.8953945037625839e-01
        1.8686861346495061e-02 2.5726128519116642e-01
        -4.9877739189453391e-01 -7.5960282774552967e-02
        3.0491208745728687e-01 2.9826447400974987e-01
        -5.1306704929842828e-01 1.1050445293263904e-01
        -3.2470670843323324e-01 -4.0275345040788980e-02
        3.8627995317496854e-02 -2.5196507528979278e-01
        5.7566792078016438e-01 -1.9796278728410838e-01
        7.3592001681647937e-02 -2.6774029595583487e-01
        -1.4394945581643581e-01 -9.7193003363691799e-02
        1.4426688731928855e-01 -6.8930227849373527e-01
        -9.3768330183124735e-02 3.4995508765713179e-01
        3.2125999819035495e-01 4.0287939883308399e-01
        2.0962167605805984e-01 -3.0586477719557204e-01
        -6.2852686445123418e-01 -1.6244550889709411e-01
        8.4727910868761871e-02 5.0555022491895707e-01
        -1.4836533679729435e-02 2.0388772783573439e-01
        -2.0169442026365772e-01 3.0958054209695229e-01
        -3.7979618234437303e-02 1.3624669025353342e-01
        -1.1322570347521854e-01 -1.0076800562604427e-01
        5.8269023184457669e-01 -8.4134967433385624e-02
        2.7279792623587214e-02 -7.1327916482865683e-01
        -1.4164362762360199e-02 3.1733508290070356e-01
        -7.9402974133082005e-02 1.9133250986884037e-01
        1.1634533342617953e-01 3.9896558978785052e-02
        -6.2970162006003638e-01 -4.2378952903565055e-03
        8.6316775597922012e-03 -1.8332646022001373e-01
        -1.5736881673703063e-01 6.9783159495646108e-01
        -3.1622774981395313e-01 -3.1622777776467753e-01
        -3.1622774952213611e-01 -3.1622777380389805e-01
        -3.1622775030660288e-01 -3.1622776917471640e-01
        -3.1622777983701045e-01 -3.1622775673236181e-01
        -3.1622776534313690e-01 -3.1622778786988354e-01</data></_>
    <_ type_id="opencv-matrix">
      <rows>10</rows>
      <cols>10</cols>
      <dt>d</dt>
      <data>
        -3.1063176147436054e-02 8.3915117104455861e-01
        -6.0899990165566083e-02 3.1153440377747411e-02
        -7.2750867143372283e-02 -1.7835918012984650e-01
        -4.6451361554500564e-01 1.3002918950448805e-01
        -1.2654114900088642e-01 -6.6205802053806023e-02
        3.8852896730423643e-02 3.6872932737797004e-01
        3.0382249748708789e-02 1.1562373527745111e-01
        -1.0168549768903787e-01 -3.5988209962763897e-02
        5.6978793350822310e-01 -6.8256508693639795e-01
        -1.5873117405085641e-01 -1.4440616988038821e-01
        -2.2683510155688061e-01 2.2399170353051701e-01
        -1.7732277139213395e-01 -6.5586303523414180e-01
        -2.8480466876030824e-01 8.3335481840781461e-02
        4.3442101784879844e-01 3.2654477508597285e-01
        2.2523500417038828e-01 5.1297634845822351e-02
        1.4627779489148615e-01 -6.6031460772699391e-02
        9.2779634395090016e-02 1.5882057738978997e-01
        -7.1149210587372169e-02 -4.6215635807076605e-01
        3.6635254999228251e-01 4.9654263682189187e-01
        -5.7794493507779643e-01 -8.3491185322710201e-02
        -8.8685270595562055e-02 -7.9440871137723881e-03
        1.9180945225230773e-02 -1.9819872338348444e-03
        2.4541522274078229e-01 -7.9226467612560059e-01
        6.4982273329695930e-02 -1.0020269160408483e-01
        5.1881054574527230e-01 1.4268977226338328e-01
        2.1303474766858813e-01 1.1535900214851140e-02
        3.4708119437919266e-01 -5.5341417503193857e-01
        2.3996908379304180e-01 -6.6936454728522651e-02
        -1.2464268678410663e-01 -2.2129408740696546e-01
        -3.6381134134779242e-01 5.1847786832479914e-01
        -4.6498565691114313e-01 5.6388948785894483e-02
        -5.3656867024333454e-01 1.2930060370369084e-01
        5.3778193216524739e-01 9.4291814075369851e-02
        1.2562008348236522e-01 1.9058907929445642e-02
        -2.6414727356948592e-01 3.0325939238894500e-01
        2.4264064652357712e-03 -4.3784718702273878e-02
        -1.8652035000630834e-01 2.9974382734240101e-01
        -6.1839991635872393e-01 -6.1006934226485676e-02
        -3.3059559156774984e-02 -6.2145987287371203e-02
        8.2857434704046041e-03 6.9446151344395612e-01
        7.4512260214481663e-01 -6.2099676458403181e-03
        -6.4170684435681768e-01 -1.3207624814036409e-01
        9.3540401837814813e-02 -3.9786216981036002e-02
        -1.0824580679932312e-03 -2.7824790925069360e-02
        5.1721143220533949e-02 -4.1697931104330843e-02
        -3.1622785010707216e-01 -3.1622775630017025e-01
        -3.1622771413395495e-01 -3.1622776180093892e-01
        -3.1622776404598291e-01 -3.1622777941412505e-01
        -3.1622775559716421e-01 -3.1622775721137103e-01
        -3.1622778199168816e-01 -3.1622773956589384e-01</data></_>
    <_ type_id="opencv-matrix">
      <rows>10</rows>
      <cols>10</cols>
      <dt>d</dt>
      <data>
        -8.9579794242591840e-02 8.6971708215613108e-01
        -8.5386441797720494e-02 2.8461758774280851e-02
        -5.8225727223563388e-02 -2.3401133485453202e-01
        -3.8386416343377400e-01 8.2069409881654218e-02
        -1.2326014487099798e-01 -5.9206285234842957e-03
        -1.2411240788649967e-01 -2.1064342546465178e-01
        -2.9376652523445168e-01 -1.7939020252463861e-01
        2.7524708141191317e-02 -1.8044821233206673e-01
        -1.1278454795497521e-01 8.5436623728396555e-01
        5.3957289442832851e-03 2.1385868922228063e-01
        1.0710751073287934e-01 -2.5665376958467390e-01
        2.3460333922179336e-01 1.8897778168927479e-01
        1.6305124033821278e-01 1.9127798057918205e-01
        -8.5325746158344851e-01 -1.8078150475079702e-02
        1.9510580502927255e-01 4.7865767491376859e-02
        2.9952609706040018e-01 -1.5465750399745923e-01
        1.3520987535232684e-01 5.0731689770849342e-01
        1.4160626179149516e-01 -3.7023049017800319e-01
        2.3439665355036807e-02 8.1979691363024298e-02
        -6.6806063627614487e-01 3.8701237772656685e-03
        1.8760555571630214e-01 -5.6384706576224644e-02
        2.9692406179611436e-01 -9.6515219954271064e-02
        3.3404502384936093e-02 -7.6332876984256248e-01
        4.6463984830314158e-02 -3.2507975274585516e-02
        5.1098383572613992e-01 -1.2664522023060229e-01
        2.5151933472381438e-01 3.6930912049073394e-02
        5.3163305339384015e-01 -6.7295993242085783e-01
        -9.1912901652422691e-02 6.6540653106487754e-02
        -5.2531251689366086e-02 3.8460176444344234e-02
        -3.5129045457746888e-01 2.4361037915314313e-01
        5.6878984366890284e-01 -2.1816492127571762e-02
        -3.8307751968418829e-01 7.1034539658621873e-02
        -5.4390704774984200e-01 -2.9790565718431323e-02
        -6.7466404205398331e-02 -1.4627830877087877e-01
        1.1988798518406533e-01 4.3262376240320927e-01
        -4.5154303785063793e-01 -5.4646870876777880e-02
        3.8850475053284514e-03 4.3822225191611490e-02
        2.3435438231259212e-01 -2.2418271084859695e-01
        1.1152188194759037e-02 -3.1367991598194811e-01
        -1.5482459188343598e-02 7.6632114127831341e-01
        -3.8666888906587293e-01 -3.7763424907881246e-02
        4.6425087199108400e-01 3.2368115283852256e-01
        -6.9920916371900066e-01 2.7846278442857135e-02
        4.1661829562301869e-02 1.8424732966320151e-01
        3.5836293475346961e-02 4.6117640964626477e-02
        -3.1622779393531086e-01 -3.1622776576857375e-01
        -3.1622775539418202e-01 -3.1622777641762578e-01
        -3.1622771032468894e-01 -3.1622777527646440e-01
        -3.1622777674220132e-01 -3.1622774989938041e-01
        -3.1622775745184711e-01 -3.1622779895809566e-01</data></_>
    <_ type_id="opencv-matrix">
      <rows>10</rows>
      <cols>10</cols>
      <dt>d</dt>
      <data>
        -1.6915689040143463e-03 8.6766512934662487e-01
        -3.0543698287154149e-02 1.2385540210042491e-01
        -9.0389165224084328e-02 -1.0049255542431006e-01
        -4.1005075039178629e-01 -8.6211839874459698e-02
        -1.3408503879622588e-01 -1.3805590182975341e-01
        1.9900585674124036e-02 2.1301377879220301e-01
        5.0622652991009875e-02 4.3604775450779114e-03
        -1.4222910775074638e-01 1.2668244624427311e-02
        6.7867213076785160e-01 -6.3356451435905181e-01
        5.4103396453593251e-02 -2.5754765387588852e-01
        -1.6555512277040588e-01 2.9700933566444621e-01
        -9.4530696819537782e-02 -7.5187796945909469e-01
        -1.5911636195866311e-01 1.1759501397795016e-02
        3.0941312790484365e-01 4.2500702560233078e-01
        5.6245380736463430e-02 7.1645804846113922e-02
        1.0811858827146069e-02 -2.4817515509342490e-02
        -1.2881834772850942e-01 4.0059573654480601e-01
        -1.5893485212291711e-01 -1.6727817056563893e-01
        2.9985157142420316e-01 5.5300563896973653e-01
        -2.1113682240414272e-01 -5.7327903399944513e-01
        2.2541438514289333e-01 -8.4878062185731587e-02
        1.9471191515410682e-01 -1.7985845639629472e-01
        -1.9725421730912590e-01 2.4039483552339705e-01
        -2.8730489017835176e-01 1.0385200628037737e-02
        6.2626323662265881e-01 -5.4787387074023142e-01
        5.8711885381369355e-01 -6.8517656722203349e-02
        5.4947506290588355e-01 -1.8598577699687022e-01
        -2.8499757397347064e-01 -3.1436504178013747e-01
        -1.5954442874763983e-02 1.8508524126755448e-02
        -3.5798283247893325e-01 7.2700849283985319e-02
        -2.2372290028694086e-01 1.4330191173527813e-02
        8.1283105837682862e-02 2.0902744022074715e-01
        -3.1024085265253210e-01 -6.6435543776762596e-01
        4.4320980596558292e-02 4.4248105717795617e-02
        5.3256046282394032e-01 2.7254884031744570e-01
        4.7199085328265049e-02 -2.4359892809806525e-02
        -1.9426647965938545e-01 2.0984783157525841e-01
        -7.7266271689833121e-01 4.6838433325663298e-01
        -8.3340326957106227e-03 2.2832295355629348e-02
        -5.7117983837731444e-02 3.0847766988153719e-01
        6.5136460265047735e-01 1.5943248897848896e-02
        -6.9770495302157309e-01 -6.4614582171245855e-02
        8.7363934697790219e-02 -2.1036496613821432e-01
        2.7975374382467898e-02 -4.2281187926533924e-02
        1.5527803661086698e-01 7.7040615173502552e-02
        -3.1622773665533266e-01 -3.1622776308758638e-01
        -3.1622780649919829e-01 -3.1622776525265134e-01
        -3.1622778912370331e-01 -3.1622773899795831e-01
        -3.1622776800123414e-01 -3.1622775176451290e-01
        -3.1622775818182169e-01 -3.1622778260437373e-01</data></_></cov_rotate_mats>
  <c type_id="opencv-matrix">
    <rows>1</rows>
    <cols>6</cols>
    <dt>d</dt>
    <data>
      -6.9773802172165404e+01 -7.1002550059765426e+01
      -7.0386817464383725e+01 -6.8295725896467573e+01
      -6.6867807981877831e+01 -6.7613902351446242e+01</data></c></my_nb>
</opencv_storage>
